<?xml version="1.0"?>
<opencv_storage>
<cascade>
  <stageType>BOOST</stageType>
  <featureType>HAAR</featureType>
  <height>24</height>
  <width>24</width>
  <stageParams>
    <boostType>GAB</boostType>
    <minHitRate>9.9500000476837158e-01</minHitRate>
    <maxFalseAlarm>5.0000000000000000e-01</maxFalseAlarm>
    <weightTrimRate>9.4999998807907104e-01</weightTrimRate>
    <maxDepth>1</maxDepth>
    <maxWeakCount>100</maxWeakCount></stageParams>
  <featureParams>
    <maxCatCount>0</maxCatCount>
    <featSize>1</featSize>
    <mode>BASIC</mode></featureParams>
  <stageNum>15</stageNum>
  <stages>
    <!-- stage 0 -->
    <_>
      <maxWeakCount>3</maxWeakCount>
      <stageThreshold>-7.1042448282241821e-01</stageThreshold>
      <weakClassifiers>
        <_>
          <internalNodes>
            0 -1 10 -1.5319612622261047e-01</internalNodes>
          <leafValues>
            7.5510203838348389e-01 -6.6863906383514404e-01</leafValues></_>
        <_>
          <internalNodes>
            0 -1 20 -3.8459390401840210e-01</internalNodes>
          <leafValues>
            9.2819941043853760e-01 -6.1450088024139404e-01</leafValues></_>
        <_>
          <internalNodes>
            0 -1 59 2.5072047719731927e-04</internalNodes>
          <leafValues>
            -7.8688943386077881e-01 5.7271546125411987e-01</leafValues></_></weakClassifiers></_>
    <!-- stage 1 -->
    <_>
      <maxWeakCount>3</maxWeakCount>
      <stageThreshold>-6.1983793973922729e-01</stageThreshold>
      <weakClassifiers>
        <_>
          <internalNodes>
            0 -1 2 -6.8638479709625244e-01</internalNodes>
          <leafValues>
            1. -5.8064514398574829e-01</leafValues></_>
        <_>
          <internalNodes>
            0 -1 39 3.3386319875717163e-02</internalNodes>
          <leafValues>
            -5.7655423879623413e-01 7.0820331573486328e-01</leafValues></_>
        <_>
          <internalNodes>
            0 -1 49 4.7293031821027398e-04</internalNodes>
          <leafValues>
            -7.0003134012222290e-01 5.3736150264739990e-01</leafValues></_></weakClassifiers></_>
    <!-- stage 2 -->
    <_>
      <maxWeakCount>6</maxWeakCount>
      <stageThreshold>-8.5381418466567993e-01</stageThreshold>
      <weakClassifiers>
        <_>
          <internalNodes>
            0 -1 3 -7.7778196334838867e-01</internalNodes>
          <leafValues>
            1. -5.7219249010086060e-01</leafValues></_>
        <_>
          <internalNodes>
            0 -1 30 -8.7818391621112823e-02</internalNodes>
          <leafValues>
            9.3401825428009033e-01 -4.2647588253021240e-01</leafValues></_>
        <_>
          <internalNodes>
            0 -1 45 -3.2045496627688408e-03</internalNodes>
          <leafValues>
            -1. 3.4519657492637634e-01</leafValues></_>
        <_>
          <internalNodes>
            0 -1 44 -3.8583286106586456e-02</internalNodes>
          <leafValues>
            8.5840272903442383e-01 -3.4435755014419556e-01</leafValues></_>
        <_>
          <internalNodes>
            0 -1 24 -3.8237500190734863e-01</internalNodes>
          <leafValues>
            8.6995339393615723e-01 -3.3323889970779419e-01</leafValues></_>
        <_>
          <internalNodes>
            0 -1 17 -1.1957581591559574e-04</internalNodes>
          <leafValues>
            -7.7695494890213013e-01 4.7725409269332886e-01</leafValues></_></weakClassifiers></_>
    <!-- stage 3 -->
    <_>
      <maxWeakCount>3</maxWeakCount>
      <stageThreshold>-5.7662630081176758e-01</stageThreshold>
      <weakClassifiers>
        <_>
          <internalNodes>
            0 -1 4 -8.2254028320312500e-01</internalNodes>
          <leafValues>
            9.3939393758773804e-01 -5.7837837934494019e-01</leafValues></_>
        <_>
          <internalNodes>
            0 -1 60 -3.5329074598848820e-03</internalNodes>
          <leafValues>
            9.3246996402740479e-01 -4.1872751712799072e-01</leafValues></_>
        <_>
          <internalNodes>
            0 -1 12 -1.0910889832302928e-03</internalNodes>
          <leafValues>
            4.2047956585884094e-01 -7.6534146070480347e-01</leafValues></_></weakClassifiers></_>
    <!-- stage 4 -->
    <_>
      <maxWeakCount>6</maxWeakCount>
      <stageThreshold>-1.1653860807418823e+00</stageThreshold>
      <weakClassifiers>
        <_>
          <internalNodes>
            0 -1 8 -4.6478489041328430e-01</internalNodes>
          <leafValues>
            9.2592591047286987e-01 -5.2879583835601807e-01</leafValues></_>
        <_>
          <internalNodes>
            0 -1 6 -1.7453491687774658e-01</internalNodes>
          <leafValues>
            9.0857499837875366e-01 -3.9428600668907166e-01</leafValues></_>
        <_>
          <internalNodes>
            0 -1 16 4.4210355554241687e-05</internalNodes>
          <leafValues>
            -5.3271347284317017e-01 5.3490024805068970e-01</leafValues></_>
        <_>
          <internalNodes>
            0 -1 50 1.5923322644084692e-03</internalNodes>
          <leafValues>
            4.9741607904434204e-01 -5.4634737968444824e-01</leafValues></_>
        <_>
          <internalNodes>
            0 -1 18 2.4696744512766600e-03</internalNodes>
          <leafValues>
            -5.7349669933319092e-01 4.7814700007438660e-01</leafValues></_>
        <_>
          <internalNodes>
            0 -1 57 4.2666296940296888e-04</internalNodes>
          <leafValues>
            3.6648979783058167e-01 -8.9457899332046509e-01</leafValues></_></weakClassifiers></_>
    <!-- stage 5 -->
    <_>
      <maxWeakCount>3</maxWeakCount>
      <stageThreshold>-5.8994406461715698e-01</stageThreshold>
      <weakClassifiers>
        <_>
          <internalNodes>
            0 -1 29 -1.7446175217628479e-01</internalNodes>
          <leafValues>
            8.7500000000000000e-01 -5.5913978815078735e-01</leafValues></_>
        <_>
          <internalNodes>
            0 -1 32 -1.8431451916694641e-01</internalNodes>
          <leafValues>
            9.1078239679336548e-01 -4.1575992107391357e-01</leafValues></_>
        <_>
          <internalNodes>
            0 -1 31 1.0222424753010273e-03</internalNodes>
          <leafValues>
            3.8495564460754395e-01 -8.4022039175033569e-01</leafValues></_></weakClassifiers></_>
    <!-- stage 6 -->
    <_>
      <maxWeakCount>3</maxWeakCount>
      <stageThreshold>-4.8627957701683044e-01</stageThreshold>
      <weakClassifiers>
        <_>
          <internalNodes>
            0 -1 47 5.8829231420531869e-04</internalNodes>
          <leafValues>
            -7.7235770225524902e-01 2.0000000298023224e-01</leafValues></_>
        <_>
          <internalNodes>
            0 -1 36 -1.3968318700790405e-02</internalNodes>
          <leafValues>
            2.2386553883552551e-01 -9.0546065568923950e-01</leafValues></_>
        <_>
          <internalNodes>
            0 -1 51 2.9991369228810072e-04</internalNodes>
          <leafValues>
            2.6012301445007324e-01 -9.1014510393142700e-01</leafValues></_></weakClassifiers></_>
    <!-- stage 7 -->
    <_>
      <maxWeakCount>4</maxWeakCount>
      <stageThreshold>-3.0093276500701904e-01</stageThreshold>
      <weakClassifiers>
        <_>
          <internalNodes>
            0 -1 11 -5.1474618911743164e-01</internalNodes>
          <leafValues>
            6.4102566242218018e-01 -5.6424582004547119e-01</leafValues></_>
        <_>
          <internalNodes>
            0 -1 15 -8.6803555488586426e-01</internalNodes>
          <leafValues>
            8.6105602979660034e-01 -3.8535603880882263e-01</leafValues></_>
        <_>
          <internalNodes>
            0 -1 53 1.8237279728055000e-03</internalNodes>
          <leafValues>
            3.4878760576248169e-01 -1.</leafValues></_>
        <_>
          <internalNodes>
            0 -1 46 -1.5545872156508267e-04</internalNodes>
          <leafValues>
            -7.7692258358001709e-01 2.9988148808479309e-01</leafValues></_></weakClassifiers></_>
    <!-- stage 8 -->
    <_>
      <maxWeakCount>4</maxWeakCount>
      <stageThreshold>-7.8915601968765259e-01</stageThreshold>
      <weakClassifiers>
        <_>
          <internalNodes>
            0 -1 33 -5.1518715918064117e-03</internalNodes>
          <leafValues>
            9.2307692766189575e-01 -5.2083331346511841e-01</leafValues></_>
        <_>
          <internalNodes>
            0 -1 19 8.3428397774696350e-03</internalNodes>
          <leafValues>
            -4.6597039699554443e-01 6.4042514562606812e-01</leafValues></_>
        <_>
          <internalNodes>
            0 -1 48 6.1498314607888460e-04</internalNodes>
          <leafValues>
            -6.2036025524139404e-01 5.2134507894515991e-01</leafValues></_>
        <_>
          <internalNodes>
            0 -1 9 -3.1367591582238674e-03</internalNodes>
          <leafValues>
            9.4326782226562500e-01 -2.8838762640953064e-01</leafValues></_></weakClassifiers></_>
    <!-- stage 9 -->
    <_>
      <maxWeakCount>4</maxWeakCount>
      <stageThreshold>-6.6812491416931152e-01</stageThreshold>
      <weakClassifiers>
        <_>
          <internalNodes>
            0 -1 26 -9.2505775392055511e-03</internalNodes>
          <leafValues>
            9.1666668653488159e-01 -5.0515460968017578e-01</leafValues></_>
        <_>
          <internalNodes>
            0 -1 41 -9.3033552169799805e-02</internalNodes>
          <leafValues>
            4.8503682017326355e-01 -7.3972100019454956e-01</leafValues></_>
        <_>
          <internalNodes>
            0 -1 14 4.2701524216681719e-04</internalNodes>
          <leafValues>
            3.1905764341354370e-01 -1.</leafValues></_>
        <_>
          <internalNodes>
            0 -1 28 -2.2359480499289930e-04</internalNodes>
          <leafValues>
            -8.7559807300567627e-01 2.5769308209419250e-01</leafValues></_></weakClassifiers></_>
    <!-- stage 10 -->
    <_>
      <maxWeakCount>5</maxWeakCount>
      <stageThreshold>-5.3089696168899536e-01</stageThreshold>
      <weakClassifiers>
        <_>
          <internalNodes>
            0 -1 40 2.6033881586045027e-03</internalNodes>
          <leafValues>
            -6.0240966081619263e-01 4.6153846383094788e-01</leafValues></_>
        <_>
          <internalNodes>
            0 -1 61 2.9252998501760885e-05</internalNodes>
          <leafValues>
            -4.3882843852043152e-01 4.8167073726654053e-01</leafValues></_>
        <_>
          <internalNodes>
            0 -1 35 1.4009226858615875e-01</internalNodes>
          <leafValues>
            -4.2752996087074280e-01 5.2419191598892212e-01</leafValues></_>
        <_>
          <internalNodes>
            0 -1 43 -3.4496286389185116e-05</internalNodes>
          <leafValues>
            4.2039883136749268e-01 -5.6433928012847900e-01</leafValues></_>
        <_>
          <internalNodes>
            0 -1 37 -2.6389682898297906e-04</internalNodes>
          <leafValues>
            6.6432422399520874e-01 -3.7001067399978638e-01</leafValues></_></weakClassifiers></_>
    <!-- stage 11 -->
    <_>
      <maxWeakCount>5</maxWeakCount>
      <stageThreshold>-7.8384917974472046e-01</stageThreshold>
      <weakClassifiers>
        <_>
          <internalNodes>
            0 -1 42 3.4189771395176649e-04</internalNodes>
          <leafValues>
            -7.4803149700164795e-01 2.0879121124744415e-01</leafValues></_>
        <_>
          <internalNodes>
            0 -1 23 2.9363531211856753e-05</internalNodes>
          <leafValues>
            -6.5241158008575439e-01 2.9272255301475525e-01</leafValues></_>
        <_>
          <internalNodes>
            0 -1 13 -3.9641177863813937e-04</internalNodes>
          <leafValues>
            -8.7793409824371338e-01 2.5112554430961609e-01</leafValues></_>
        <_>
          <internalNodes>
            0 -1 54 1.3531715376302600e-04</internalNodes>
          <leafValues>
            2.6798918843269348e-01 -8.3120650053024292e-01</leafValues></_>
        <_>
          <internalNodes>
            0 -1 55 -1.4591150102205575e-04</internalNodes>
          <leafValues>
            -8.4765493869781494e-01 2.6563429832458496e-01</leafValues></_></weakClassifiers></_>
    <!-- stage 12 -->
    <_>
      <maxWeakCount>5</maxWeakCount>
      <stageThreshold>-4.3266049027442932e-01</stageThreshold>
      <weakClassifiers>
        <_>
          <internalNodes>
            0 -1 5 -1.1491514742374420e-02</internalNodes>
          <leafValues>
            8.5185188055038452e-01 -5.1832461357116699e-01</leafValues></_>
        <_>
          <internalNodes>
            0 -1 7 -7.4863439798355103e-01</internalNodes>
          <leafValues>
            7.9468721151351929e-01 -4.0706482529640198e-01</leafValues></_>
        <_>
          <internalNodes>
            0 -1 0 1.0996039956808090e-02</internalNodes>
          <leafValues>
            3.2381060719490051e-01 -8.4383040666580200e-01</leafValues></_>
        <_>
          <internalNodes>
            0 -1 52 -9.3411028501577675e-05</internalNodes>
          <leafValues>
            6.8575525283813477e-01 -3.6147895455360413e-01</leafValues></_>
        <_>
          <internalNodes>
            0 -1 22 4.5926903840154409e-04</internalNodes>
          <leafValues>
            -5.1683688163757324e-01 5.8383011817932129e-01</leafValues></_></weakClassifiers></_>
    <!-- stage 13 -->
    <_>
      <maxWeakCount>4</maxWeakCount>
      <stageThreshold>-7.4234211444854736e-01</stageThreshold>
      <weakClassifiers>
        <_>
          <internalNodes>
            0 -1 38 2.4396520166192204e-04</internalNodes>
          <leafValues>
            -5.6725144386291504e-01 4.4680851697921753e-01</leafValues></_>
        <_>
          <internalNodes>
            0 -1 58 4.0312173950951546e-05</internalNodes>
          <leafValues>
            -6.3681316375732422e-01 3.1577673554420471e-01</leafValues></_>
        <_>
          <internalNodes>
            0 -1 1 1.5209348872303963e-02</internalNodes>
          <leafValues>
            2.1927493810653687e-01 -9.4642382860183716e-01</leafValues></_>
        <_>
          <internalNodes>
            0 -1 27 2.0970136392861605e-03</internalNodes>
          <leafValues>
            2.4244761466979980e-01 -9.7710275650024414e-01</leafValues></_></weakClassifiers></_>
    <!-- stage 14 -->
    <_>
      <maxWeakCount>4</maxWeakCount>
      <stageThreshold>-1.3810539245605469e+00</stageThreshold>
      <weakClassifiers>
        <_>
          <internalNodes>
            0 -1 56 1.6792505048215389e-03</internalNodes>
          <leafValues>
            -8.1818181276321411e-01 2.3711340129375458e-01</leafValues></_>
        <_>
          <internalNodes>
            0 -1 34 1.9300865460536443e-05</internalNodes>
          <leafValues>
            -4.9602660536766052e-01 6.2660956382751465e-01</leafValues></_>
        <_>
          <internalNodes>
            0 -1 25 3.0548217182513326e-05</internalNodes>
          <leafValues>
            -5.2317297458648682e-01 5.9069478511810303e-01</leafValues></_>
        <_>
          <internalNodes>
            0 -1 21 -4.5654980931431055e-04</internalNodes>
          <leafValues>
            -6.6630864143371582e-01 4.0372121334075928e-01</leafValues></_></weakClassifiers></_></stages>
  <features>
    <_>
      <rects>
        <_>
          0 0 12 20 -1.</_>
        <_>
          0 0 6 10 2.</_>
        <_>
          6 10 6 10 2.</_></rects>
      <tilted>0</tilted></_>
    <_>
      <rects>
        <_>
          0 1 1 18 -1.</_>
        <_>
          0 10 1 9 2.</_></rects>
      <tilted>0</tilted></_>
    <_>
      <rects>
        <_>
          0 1 24 18 -1.</_>
        <_>
          8 1 8 18 3.</_></rects>
      <tilted>0</tilted></_>
    <_>
      <rects>
        <_>
          0 1 24 19 -1.</_>
        <_>
          8 1 8 19 3.</_></rects>
      <tilted>0</tilted></_>
    <_>
      <rects>
        <_>
          0 1 24 22 -1.</_>
        <_>
          8 1 8 22 3.</_></rects>
      <tilted>0</tilted></_>
    <_>
      <rects>
        <_>
          0 2 2 19 -1.</_>
        <_>
          1 2 1 19 2.</_></rects>
      <tilted>0</tilted></_>
    <_>
      <rects>
        <_>
          0 4 24 4 -1.</_>
        <_>
          8 4 8 4 3.</_></rects>
      <tilted>0</tilted></_>
    <_>
      <rects>
        <_>
          0 4 24 18 -1.</_>
        <_>
          8 4 8 18 3.</_></rects>
      <tilted>0</tilted></_>
    <_>
      <rects>
        <_>
          0 4 24 15 -1.</_>
        <_>
          0 9 24 5 3.</_></rects>
      <tilted>0</tilted></_>
    <_>
      <rects>
        <_>
          0 8 3 6 -1.</_>
        <_>
          1 8 1 6 3.</_></rects>
      <tilted>0</tilted></_>
    <_>
      <rects>
        <_>
          0 9 24 7 -1.</_>
        <_>
          8 9 8 7 3.</_></rects>
      <tilted>0</tilted></_>
    <_>
      <rects>
        <_>
          0 9 24 13 -1.</_>
        <_>
          8 9 8 13 3.</_></rects>
      <tilted>0</tilted></_>
    <_>
      <rects>
        <_>
          0 11 12 2 -1.</_>
        <_>
          6 11 6 2 2.</_></rects>
      <tilted>0</tilted></_>
    <_>
      <rects>
        <_>
          0 16 1 6 -1.</_>
        <_>
          0 18 1 2 3.</_></rects>
      <tilted>0</tilted></_>
    <_>
      <rects>
        <_>
          0 17 2 2 -1.</_>
        <_>
          0 18 2 1 2.</_></rects>
      <tilted>0</tilted></_>
    <_>
      <rects>
        <_>
          1 0 21 24 -1.</_>
        <_>
          1 8 21 8 3.</_></rects>
      <tilted>0</tilted></_>
    <_>
      <rects>
        <_>
          1 2 2 9 -1.</_>
        <_>
          1 5 2 3 3.</_></rects>
      <tilted>0</tilted></_>
    <_>
      <rects>
        <_>
          1 19 13 3 -1.</_>
        <_>
          1 20 13 1 3.</_></rects>
      <tilted>0</tilted></_>
    <_>
      <rects>
        <_>
          1 20 12 3 -1.</_>
        <_>
          5 20 4 3 3.</_></rects>
      <tilted>0</tilted></_>
    <_>
      <rects>
        <_>
          2 0 15 22 -1.</_>
        <_>
          7 0 5 22 3.</_></rects>
      <tilted>0</tilted></_>
    <_>
      <rects>
        <_>
          2 3 20 18 -1.</_>
        <_>
          2 9 20 6 3.</_></rects>
      <tilted>0</tilted></_>
    <_>
      <rects>
        <_>
          2 9 10 2 -1.</_>
        <_>
          2 9 5 1 2.</_>
        <_>
          7 10 5 1 2.</_></rects>
      <tilted>0</tilted></_>
    <_>
      <rects>
        <_>
          3 1 1 12 -1.</_>
        <_>
          3 5 1 4 3.</_></rects>
      <tilted>0</tilted></_>
    <_>
      <rects>
        <_>
          3 2 6 2 -1.</_>
        <_>
          5 2 2 2 3.</_></rects>
      <tilted>0</tilted></_>
    <_>
      <rects>
        <_>
          3 2 18 22 -1.</_>
        <_>
          9 2 6 22 3.</_></rects>
      <tilted>0</tilted></_>
    <_>
      <rects>
        <_>
          3 20 2 1 -1.</_>
        <_>
          4 20 1 1 2.</_></rects>
      <tilted>0</tilted></_>
    <_>
      <rects>
        <_>
          4 0 13 3 -1.</_>
        <_>
          4 1 13 1 3.</_></rects>
      <tilted>0</tilted></_>
    <_>
      <rects>
        <_>
          4 17 20 3 -1.</_>
        <_>
          4 18 20 1 3.</_></rects>
      <tilted>0</tilted></_>
    <_>
      <rects>
        <_>
          4 23 6 1 -1.</_>
        <_>
          6 23 2 1 3.</_></rects>
      <tilted>0</tilted></_>
    <_>
      <rects>
        <_>
          5 4 12 17 -1.</_>
        <_>
          9 4 4 17 3.</_></rects>
      <tilted>0</tilted></_>
    <_>
      <rects>
        <_>
          5 6 14 9 -1.</_>
        <_>
          5 9 14 3 3.</_></rects>
      <tilted>0</tilted></_>
    <_>
      <rects>
        <_>
          5 10 2 10 -1.</_>
        <_>
          5 10 1 5 2.</_>
        <_>
          6 15 1 5 2.</_></rects>
      <tilted>0</tilted></_>
    <_>
      <rects>
        <_>
          7 6 17 12 -1.</_>
        <_>
          7 10 17 4 3.</_></rects>
      <tilted>0</tilted></_>
    <_>
      <rects>
        <_>
          7 21 10 3 -1.</_>
        <_>
          7 22 10 1 3.</_></rects>
      <tilted>0</tilted></_>
    <_>
      <rects>
        <_>
          8 5 10 2 -1.</_>
        <_>
          8 6 10 1 2.</_></rects>
      <tilted>0</tilted></_>
    <_>
      <rects>
        <_>
          8 8 8 16 -1.</_>
        <_>
          8 16 8 8 2.</_></rects>
      <tilted>0</tilted></_>
    <_>
      <rects>
        <_>
          8 8 16 16 -1.</_>
        <_>
          8 8 8 8 2.</_>
        <_>
          16 16 8 8 2.</_></rects>
      <tilted>0</tilted></_>
    <_>
      <rects>
        <_>
          8 13 10 2 -1.</_>
        <_>
          8 14 10 1 2.</_></rects>
      <tilted>0</tilted></_>
    <_>
      <rects>
        <_>
          8 19 6 3 -1.</_>
        <_>
          11 19 3 3 2.</_></rects>
      <tilted>0</tilted></_>
    <_>
      <rects>
        <_>
          9 9 2 14 -1.</_>
        <_>
          9 16 2 7 2.</_></rects>
      <tilted>0</tilted></_>
    <_>
      <rects>
        <_>
          9 9 6 6 -1.</_>
        <_>
          9 11 6 2 3.</_></rects>
      <tilted>0</tilted></_>
    <_>
      <rects>
        <_>
          11 0 4 24 -1.</_>
        <_>
          11 8 4 8 3.</_></rects>
      <tilted>0</tilted></_>
    <_>
      <rects>
        <_>
          11 18 12 1 -1.</_>
        <_>
          15 18 4 1 3.</_></rects>
      <tilted>0</tilted></_>
    <_>
      <rects>
        <_>
          12 0 3 4 -1.</_>
        <_>
          12 2 3 2 2.</_></rects>
      <tilted>0</tilted></_>
    <_>
      <rects>
        <_>
          13 0 1 24 -1.</_>
        <_>
          13 8 1 8 3.</_></rects>
      <tilted>0</tilted></_>
    <_>
      <rects>
        <_>
          13 1 10 10 -1.</_>
        <_>
          13 1 5 5 2.</_>
        <_>
          18 6 5 5 2.</_></rects>
      <tilted>0</tilted></_>
    <_>
      <rects>
        <_>
          13 3 8 4 -1.</_>
        <_>
          13 3 4 2 2.</_>
        <_>
          17 5 4 2 2.</_></rects>
      <tilted>0</tilted></_>
    <_>
      <rects>
        <_>
          13 20 9 2 -1.</_>
        <_>
          16 20 3 2 3.</_></rects>
      <tilted>0</tilted></_>
    <_>
      <rects>
        <_>
          14 1 9 3 -1.</_>
        <_>
          17 1 3 3 3.</_></rects>
      <tilted>0</tilted></_>
    <_>
      <rects>
        <_>
          14 12 10 1 -1.</_>
        <_>
          19 12 5 1 2.</_></rects>
      <tilted>0</tilted></_>
    <_>
      <rects>
        <_>
          15 2 4 10 -1.</_>
        <_>
          15 2 2 5 2.</_>
        <_>
          17 7 2 5 2.</_></rects>
      <tilted>0</tilted></_>
    <_>
      <rects>
        <_>
          15 5 4 2 -1.</_>
        <_>
          15 5 2 1 2.</_>
        <_>
          17 6 2 1 2.</_></rects>
      <tilted>0</tilted></_>
    <_>
      <rects>
        <_>
          16 7 4 10 -1.</_>
        <_>
          18 7 2 10 2.</_></rects>
      <tilted>0</tilted></_>
    <_>
      <rects>
        <_>
          16 18 8 6 -1.</_>
        <_>
          16 18 4 3 2.</_>
        <_>
          20 21 4 3 2.</_></rects>
      <tilted>0</tilted></_>
    <_>
      <rects>
        <_>
          17 12 3 1 -1.</_>
        <_>
          18 12 1 1 3.</_></rects>
      <tilted>0</tilted></_>
    <_>
      <rects>
        <_>
          18 2 1 6 -1.</_>
        <_>
          18 4 1 2 3.</_></rects>
      <tilted>0</tilted></_>
    <_>
      <rects>
        <_>
          18 13 4 9 -1.</_>
        <_>
          18 16 4 3 3.</_></rects>
      <tilted>0</tilted></_>
    <_>
      <rects>
        <_>
          18 19 5 3 -1.</_>
        <_>
          18 20 5 1 3.</_></rects>
      <tilted>0</tilted></_>
    <_>
      <rects>
        <_>
          20 3 2 6 -1.</_>
        <_>
          20 5 2 2 3.</_></rects>
      <tilted>0</tilted></_>
    <_>
      <rects>
        <_>
          20 13 4 9 -1.</_>
        <_>
          20 16 4 3 3.</_></rects>
      <tilted>0</tilted></_>
    <_>
      <rects>
        <_>
          21 7 3 9 -1.</_>
        <_>
          22 7 1 9 3.</_></rects>
      <tilted>0</tilted></_>
    <_>
      <rects>
        <_>
          23 0 1 3 -1.</_>
        <_>
          23 1 1 1 3.</_></rects>
      <tilted>0</tilted></_></features></cascade>
</opencv_storage>
