<?xml version="1.0"?>
<opencv_storage>
<cascade>
  <stageType>BOOST</stageType>
  <featureType>HAAR</featureType>
  <height>24</height>
  <width>24</width>
  <stageParams>
    <boostType>GAB</boostType>
    <minHitRate>9.9500000476837158e-01</minHitRate>
    <maxFalseAlarm>5.0000000000000000e-01</maxFalseAlarm>
    <weightTrimRate>9.4999998807907104e-01</weightTrimRate>
    <maxDepth>1</maxDepth>
    <maxWeakCount>100</maxWeakCount></stageParams>
  <featureParams>
    <maxCatCount>0</maxCatCount>
    <featSize>1</featSize>
    <mode>BASIC</mode></featureParams>
  <stageNum>10</stageNum>
  <stages>
    <!-- stage 0 -->
    <_>
      <maxWeakCount>2</maxWeakCount>
      <stageThreshold>-3.7549547851085663e-02</stageThreshold>
      <weakClassifiers>
        <_>
          <internalNodes>
            0 -1 5 -2.4252291023731232e-01</internalNodes>
          <leafValues>
            9.3333333730697632e-01 -9.7278910875320435e-01</leafValues></_>
        <_>
          <internalNodes>
            0 -1 21 -9.2206485569477081e-02</internalNodes>
          <leafValues>
            9.3523955345153809e-01 -8.2968485355377197e-01</leafValues></_></weakClassifiers></_>
    <!-- stage 1 -->
    <_>
      <maxWeakCount>3</maxWeakCount>
      <stageThreshold>-1.1030181646347046e+00</stageThreshold>
      <weakClassifiers>
        <_>
          <internalNodes>
            0 -1 20 -3.1258308887481689e-01</internalNodes>
          <leafValues>
            8.2142859697341919e-01 -8.8079470396041870e-01</leafValues></_>
        <_>
          <internalNodes>
            0 -1 4 -4.2315667867660522e-01</internalNodes>
          <leafValues>
            6.3980680704116821e-01 -8.3661788702011108e-01</leafValues></_>
        <_>
          <internalNodes>
            0 -1 19 4.9360364675521851e-02</internalNodes>
          <leafValues>
            -8.6203032732009888e-01 6.9920015335083008e-01</leafValues></_></weakClassifiers></_>
    <!-- stage 2 -->
    <_>
      <maxWeakCount>2</maxWeakCount>
      <stageThreshold>-4.6172556281089783e-01</stageThreshold>
      <weakClassifiers>
        <_>
          <internalNodes>
            0 -1 16 -3.9390824735164642e-02</internalNodes>
          <leafValues>
            4.4444444775581360e-01 -8.8148146867752075e-01</leafValues></_>
        <_>
          <internalNodes>
            0 -1 7 -4.9184414092451334e-04</internalNodes>
          <leafValues>
            4.5199716091156006e-01 -9.0617001056671143e-01</leafValues></_></weakClassifiers></_>
    <!-- stage 3 -->
    <_>
      <maxWeakCount>2</maxWeakCount>
      <stageThreshold>-3.9153489470481873e-01</stageThreshold>
      <weakClassifiers>
        <_>
          <internalNodes>
            0 -1 18 -1.9147853553295135e-01</internalNodes>
          <leafValues>
            4.7368422150611877e-01 -9.3893128633499146e-01</leafValues></_>
        <_>
          <internalNodes>
            0 -1 4 -4.7227233648300171e-01</internalNodes>
          <leafValues>
            5.4739642143249512e-01 -7.8166329860687256e-01</leafValues></_></weakClassifiers></_>
    <!-- stage 4 -->
    <_>
      <maxWeakCount>2</maxWeakCount>
      <stageThreshold>-7.5357890129089355e-01</stageThreshold>
      <weakClassifiers>
        <_>
          <internalNodes>
            0 -1 11 4.8707220703363419e-02</internalNodes>
          <leafValues>
            -9.0909093618392944e-01 4.3999999761581421e-01</leafValues></_>
        <_>
          <internalNodes>
            0 -1 6 8.1231351941823959e-04</internalNodes>
          <leafValues>
            1.5551203489303589e-01 -1.</leafValues></_></weakClassifiers></_>
    <!-- stage 5 -->
    <_>
      <maxWeakCount>3</maxWeakCount>
      <stageThreshold>-3.8847184181213379e-01</stageThreshold>
      <weakClassifiers>
        <_>
          <internalNodes>
            0 -1 17 -3.7271833419799805e-01</internalNodes>
          <leafValues>
            2.7272728085517883e-01 -8.3076924085617065e-01</leafValues></_>
        <_>
          <internalNodes>
            0 -1 23 1.3569986913353205e-04</internalNodes>
          <leafValues>
            2.6069062948226929e-01 -9.7135585546493530e-01</leafValues></_>
        <_>
          <internalNodes>
            0 -1 9 -1.3270400813780725e-05</internalNodes>
          <leafValues>
            3.4020796418190002e-01 -9.2188972234725952e-01</leafValues></_></weakClassifiers></_>
    <!-- stage 6 -->
    <_>
      <maxWeakCount>2</maxWeakCount>
      <stageThreshold>-2.7273431420326233e-01</stageThreshold>
      <weakClassifiers>
        <_>
          <internalNodes>
            0 -1 14 -2.4771444499492645e-02</internalNodes>
          <leafValues>
            6.6666668653488159e-01 -6.9696968793869019e-01</leafValues></_>
        <_>
          <internalNodes>
            0 -1 12 -9.9953271273989230e-05</internalNodes>
          <leafValues>
            4.2423537373542786e-01 -8.9755213260650635e-01</leafValues></_></weakClassifiers></_>
    <!-- stage 7 -->
    <_>
      <maxWeakCount>4</maxWeakCount>
      <stageThreshold>-1.0761979818344116e+00</stageThreshold>
      <weakClassifiers>
        <_>
          <internalNodes>
            0 -1 2 9.0059833601117134e-03</internalNodes>
          <leafValues>
            1.0476190596818924e-01 -9.6078431606292725e-01</leafValues></_>
        <_>
          <internalNodes>
            0 -1 9 -1.7626903718337417e-04</internalNodes>
          <leafValues>
            -9.6701526641845703e-01 2.1232113242149353e-01</leafValues></_>
        <_>
          <internalNodes>
            0 -1 15 -3.2573992013931274e-01</internalNodes>
          <leafValues>
            6.0589194297790527e-01 -5.9268504381179810e-01</leafValues></_>
        <_>
          <internalNodes>
            0 -1 13 -3.8337873411364853e-04</internalNodes>
          <leafValues>
            -9.6658873558044434e-01 3.7874042987823486e-01</leafValues></_></weakClassifiers></_>
    <!-- stage 8 -->
    <_>
      <maxWeakCount>4</maxWeakCount>
      <stageThreshold>-1.1256307363510132e+00</stageThreshold>
      <weakClassifiers>
        <_>
          <internalNodes>
            0 -1 10 -1.3911870121955872e-01</internalNodes>
          <leafValues>
            1.4893616735935211e-01 -8.9380532503128052e-01</leafValues></_>
        <_>
          <internalNodes>
            0 -1 22 8.5894518997520208e-04</internalNodes>
          <leafValues>
            -7.7881443500518799e-01 4.1049072146415710e-01</leafValues></_>
        <_>
          <internalNodes>
            0 -1 24 -2.7133717594551854e-05</internalNodes>
          <leafValues>
            4.0453940629959106e-01 -8.7923163175582886e-01</leafValues></_>
        <_>
          <internalNodes>
            0 -1 8 1.9447569502517581e-04</internalNodes>
          <leafValues>
            4.2395645380020142e-01 -9.0029186010360718e-01</leafValues></_></weakClassifiers></_>
    <!-- stage 9 -->
    <_>
      <maxWeakCount>3</maxWeakCount>
      <stageThreshold>-5.8862239122390747e-01</stageThreshold>
      <weakClassifiers>
        <_>
          <internalNodes>
            0 -1 0 6.0306723753456026e-05</internalNodes>
          <leafValues>
            -8.6086958646774292e-01 1.3043478131294250e-01</leafValues></_>
        <_>
          <internalNodes>
            0 -1 1 5.2735384088009596e-04</internalNodes>
          <leafValues>
            2.1983650326728821e-01 -9.6555209159851074e-01</leafValues></_>
        <_>
          <internalNodes>
            0 -1 3 1.7087146406993270e-03</internalNodes>
          <leafValues>
            2.4649494886398315e-01 -9.2916440963745117e-01</leafValues></_></weakClassifiers></_></stages>
  <features>
    <_>
      <rects>
        <_>
          0 0 6 4 -1.</_>
        <_>
          0 0 3 2 2.</_>
        <_>
          3 2 3 2 2.</_></rects>
      <tilted>0</tilted></_>
    <_>
      <rects>
        <_>
          0 2 1 12 -1.</_>
        <_>
          0 6 1 4 3.</_></rects>
      <tilted>0</tilted></_>
    <_>
      <rects>
        <_>
          0 6 4 18 -1.</_>
        <_>
          0 12 4 6 3.</_></rects>
      <tilted>0</tilted></_>
    <_>
      <rects>
        <_>
          0 7 1 15 -1.</_>
        <_>
          0 12 1 5 3.</_></rects>
      <tilted>0</tilted></_>
    <_>
      <rects>
        <_>
          0 7 24 12 -1.</_>
        <_>
          8 7 8 12 3.</_></rects>
      <tilted>0</tilted></_>
    <_>
      <rects>
        <_>
          0 8 24 9 -1.</_>
        <_>
          8 8 8 9 3.</_></rects>
      <tilted>0</tilted></_>
    <_>
      <rects>
        <_>
          0 14 1 9 -1.</_>
        <_>
          0 17 1 3 3.</_></rects>
      <tilted>0</tilted></_>
    <_>
      <rects>
        <_>
          0 18 1 6 -1.</_>
        <_>
          0 21 1 3 2.</_></rects>
      <tilted>0</tilted></_>
    <_>
      <rects>
        <_>
          0 21 8 3 -1.</_>
        <_>
          0 22 8 1 3.</_></rects>
      <tilted>0</tilted></_>
    <_>
      <rects>
        <_>
          0 22 1 2 -1.</_>
        <_>
          0 23 1 1 2.</_></rects>
      <tilted>0</tilted></_>
    <_>
      <rects>
        <_>
          1 5 10 19 -1.</_>
        <_>
          6 5 5 19 2.</_></rects>
      <tilted>0</tilted></_>
    <_>
      <rects>
        <_>
          1 16 16 8 -1.</_>
        <_>
          1 20 16 4 2.</_></rects>
      <tilted>0</tilted></_>
    <_>
      <rects>
        <_>
          1 17 1 4 -1.</_>
        <_>
          1 19 1 2 2.</_></rects>
      <tilted>0</tilted></_>
    <_>
      <rects>
        <_>
          1 18 8 2 -1.</_>
        <_>
          1 19 8 1 2.</_></rects>
      <tilted>0</tilted></_>
    <_>
      <rects>
        <_>
          2 15 13 6 -1.</_>
        <_>
          2 17 13 2 3.</_></rects>
      <tilted>0</tilted></_>
    <_>
      <rects>
        <_>
          3 6 21 12 -1.</_>
        <_>
          10 6 7 12 3.</_></rects>
      <tilted>0</tilted></_>
    <_>
      <rects>
        <_>
          5 0 4 14 -1.</_>
        <_>
          5 7 4 7 2.</_></rects>
      <tilted>0</tilted></_>
    <_>
      <rects>
        <_>
          5 0 14 24 -1.</_>
        <_>
          5 8 14 8 3.</_></rects>
      <tilted>0</tilted></_>
    <_>
      <rects>
        <_>
          5 0 19 22 -1.</_>
        <_>
          5 11 19 11 2.</_></rects>
      <tilted>0</tilted></_>
    <_>
      <rects>
        <_>
          5 16 17 8 -1.</_>
        <_>
          5 20 17 4 2.</_></rects>
      <tilted>0</tilted></_>
    <_>
      <rects>
        <_>
          7 0 12 24 -1.</_>
        <_>
          7 8 12 8 3.</_></rects>
      <tilted>0</tilted></_>
    <_>
      <rects>
        <_>
          7 9 15 9 -1.</_>
        <_>
          12 9 5 9 3.</_></rects>
      <tilted>0</tilted></_>
    <_>
      <rects>
        <_>
          12 21 10 2 -1.</_>
        <_>
          12 22 10 1 2.</_></rects>
      <tilted>0</tilted></_>
    <_>
      <rects>
        <_>
          19 5 2 3 -1.</_>
        <_>
          20 5 1 3 2.</_></rects>
      <tilted>0</tilted></_>
    <_>
      <rects>
        <_>
          21 12 1 4 -1.</_>
        <_>
          21 14 1 2 2.</_></rects>
      <tilted>0</tilted></_></features></cascade>
</opencv_storage>
